svm_type one_class
kernel_type rbf
gamma 0.10000000000000001
nr_class 2
total_sv 217
rho 181.45796051184553
SV
1 1:0.98531355 12:0.99990001 
1 1:0.98531355 
1 1:0.98531355 6:0.99990001 
1 1:0.98677907 
1 1:0.9906871 
1 1:0.99361813 
1 1:0.99508364 
1 1:0.99654916 
1 1:0.99801467 28:0.99990001 
1 1:0.99996869 48:0.99990001 
1 36:0.99990001 
1 1:0.00097700898 28:0.99990001 
1 1:0.001954018 48:0.99990001 
1 36:0.99990001 
1 1:0.00097700898 28:0.99990001 
1 1:0.001954018 28:0.99990001 
1 36:0.99990001 
1 1:0.00048850449 48:0.99990001 
1 1:0.00097700898 28:0.99990001 
1 1:0.001954018 28:0.99990001 
1 6:0.99990001 
1 1:0.0014655135 13:0.99990001 
1 1:0.0029310269 28:0.99990001 
1 6:0.99990001 
1 1:0.00097700898 28:0.99990001 
1 1:0.001954018 28:0.99990001 
1 6:0.99990001 
1 1:0.00097700898 28:0.99990001 
1 1:0.001954018 28:0.99990001 
1 50:0.99990001 
1 1:0.00097700898 12:0.99990001 
1 1:0.0034195314 44:0.99990001 
1 1:0.010747099 28:0.99990001 
1 6:0.99990001 
1 1:0.00097700898 13:0.99990001 
1 6:0.99990001 
1 1:0.00097700898 12:0.99990001 
1 6:0.99990001 
1 1:0.00097700898 12:0.99990001 
1 6:0.99990001 
1 1:0.00097700898 12:0.99990001 
1 6:0.99990001 
1 1:0.00097700898 12:0.99990001 
1 1:0.0034195314 44:0.99990001 
1 1:0.010747099 28:0.99990001 
1 6:0.99990001 
1 1:0.00097700898 13:0.99990001 
1 6:0.99990001 
1 1:0.00097700898 12:0.99990001 
1 6:0.99990001 
1 1:0.00097700898 13:0.99990001 
1 48:0.99990001 
1 1:0.00097700898 12:0.99990001 
1 48:0.99990001 
1 1:0.00097700898 12:0.99990001 
1 1:0.0014655135 12:0.99990001 
1 1:0.0024425224 21:0.99990001 
1 1:0.0029310269 13:0.99990001 
1 1:0.016609153 44:0.99990001 
1 6:0.99990001 
1 6:0.99990001 
1 1:0.00097700898 12:0.99990001 
1 6:0.99990001 
1 1:0.00097700898 13:0.99990001 
1 6:0.99990001 
1 1:0.00097700898 12:0.99990001 
1 1:0.011235603 44:0.99990001 
1 1:0.026867747 46:0.99990001 
1 1:0.034195314 46:0.99990001 
1 48:0.99990001 
1 1:0.00097700898 13:0.99990001 
1 6:0.99990001 
1 1:0.00097700898 13:0.99990001 
1 1:0.0014655135 13:0.99990001 
1 6:0.99990001 
1 1:0.00097700898 12:0.99990001 
1 1:0.011724108 44:0.99990001 
1 1:0.57496978 13:0.99990001 
1 1:0.57496978 6:0.99990001 
1 1:0.5769238 48:0.99990001 
1 1:0.00097700898 13:0.99990001 
1 50:0.99990001 
1 1:0.00097700898 12:0.99990001 
1 1:0.021982702 44:0.99990001 
1 1:0.00097700898 12:0.99990001 
1 1:0.00097700898 12:0.99990001 
1 1:0.00097700898 12:0.99990001 
1 1:0.0063505583 48:0.99990001 
1 48:0.99990001 
1 1:0.0083045763 44:0.99990001 
1 1:0.00097700898 28:0.99990001 
1 40:0.99990001 
1 40:0.99990001 
1 40:0.99990001 
1 1:0.00097700898 12:0.99990001 
1 50:0.99990001 
1 1:0.00097700898 13:0.99990001 
0.85129774054445684 1:0.001954018 12:0.99990001 
1 1:0.01416663 44:0.99990001 
1 1:0.035172323 30:0.99990001 
1 1:0.40985527 46:0.99990001 
1 1:0.43379199 13:0.99990001 
1 1:0.43379199 6:0.99990001 
1 1:0.43428049 12:0.99990001 
1 1:0.43428049 6:0.99990001 
1 1:0.43818853 28:0.99990001 
1 1:0.43916553 48:0.99990001 
1 1:0.00097700898 13:0.99990001 
1 1:0.00097700898 13:0.99990001 
1 50:0.99990001 
1 1:0.00097700898 12:0.99990001 
1 1:0.0034195314 44:0.99990001 
1 1:0.00097700898 13:0.99990001 
1 1:0.00097700898 12:0.99990001 
1 1:0.00097700898 12:0.99990001 
1 1:0.095258375 44:0.99990001 
1 1:0.55249858 44:0.99990001 
1 1:0.55836063 12:0.99990001 
1 1:0.55836063 6:0.99990001 
1 1:0.57106175 13:0.99990001 
1 1:0.57106175 6:0.99990001 
1 1:0.58473987 28:0.99990001 
1 1:0.58522838 48:0.99990001 
1 1:0.00048850449 48:0.99990001 
1 1:0.00097700898 12:0.99990001 
1 1:0.00097700898 13:0.99990001 
1 1:0.031264287 44:0.99990001 
1 1:0.051781476 30:0.99990001 
1 1:0.052758485 30:0.99990001 
1 1:0.010747099 28:0.99990001 
1 1:0.00097700898 13:0.99990001 
1 48:0.99990001 
1 1:0.0087930808 28:0.99990001 
1 48:0.99990001 
1 1:0.0078160718 28:0.99990001 
0.76143721646294893 1:0.0087930808 48:0.99990001 
1 1:0.093304357 42:0.99990001 
1 1:0.097212393 42:0.99990001 
1 1:0.1089365 42:0.99990001 
1 1:0.1196836 42:0.99990001 
1 1:0.17293059 44:0.99990001 
1 1:0.0092815853 28:0.99990001 
1 1:0.016609153 44:0.99990001 
1 1:0.00097700898 13:0.99990001 
1 1:0.00097700898 13:0.99990001 
1 1:0.026379242 44:0.99990001 
1 1:0.0029310269 13:0.99990001 
0.65955331004250639 1:0.012212612 28:0.99990001 
1 1:0.0097700898 28:0.99990001 
1 1:0.027356251 20:0.99990001 
1 1:0.2291086 28:0.99990001 
1 1:0.23008561 48:0.99990001 
1 40:0.99990001 
1 1:0.048361944 42:0.99990001 
1 1:0.10453996 44:0.99990001 
1 40:0.99990001 
1 1:0.00048850449 48:0.99990001 
1 1:0.0092815853 28:0.99990001 
0.99184352101769213 1:0.012212612 28:0.99990001 
1 1:0.02833326 44:0.99990001 
1 1:0.00048850449 48:0.99990001 
1 1:0.00097700898 13:0.99990001 
1 48:0.99990001 
1 1:0.00097700898 12:0.99990001 
1 1:0.24620626 44:0.99990001 
1 1:0.25939588 12:0.99990001 
1 1:0.25939588 6:0.99990001 
1 1:0.26330392 28:0.99990001 
1 1:0.26428093 48:0.99990001 
1 1:0.00097700898 13:0.99990001 
1 40:0.99990001 
1 48:0.99990001 
1 1:0.060574557 30:0.99990001 
1 1:0.2725855 28:0.99990001 
1 1:0.27356251 48:0.99990001 
1 1:0.012212612 13:0.99990001 
0.54905655773683903 1:0.012701117 13:0.99990001 
1 1:0.13238472 44:0.99990001 
1 40:0.99990001 
1 40:0.99990001 
1 1:0.0048850449 13:0.99990001 
1 48:0.99990001 
1 1:0.064971097 44:0.99990001 
1 1:0.0092815853 28:0.99990001 
1 1:0.034683819 44:0.99990001 
1 1:0.00048850449 48:0.99990001 
1 1:0.0087930808 28:0.99990001 
1 1:0.27747055 42:0.99990001 
1 1:0.31361988 44:0.99990001 
1 1:0.33657959 12:0.99990001 
1 1:0.33657959 6:0.99990001 
1 1:0.35856229 28:0.99990001 
1 1:0.3595393 48:0.99990001 
1 1:0.00097700898 12:0.99990001 
1 48:0.99990001 
1 1:0.00097700898 12:0.99990001 
0.98681165419556816 6:0.99990001 
1 1:0.046896431 44:0.99990001 
1 1:0.25255682 13:0.99990001 
1 1:0.25255682 6:0.99990001 
1 1:0.25841887 28:0.99990001 
1 1:0.25939588 48:0.99990001 
1 6:0.99990001 
1 1:0.00097700898 13:0.99990001 
1 6:0.99990001 
1 1:0.0048850449 13:0.99990001 
1 6:0.99990001 
1 1:0.041034377 44:0.99990001 
1 1:0.00048850449 48:0.99990001 
1 48:0.99990001 
1 1:0.0083045763 44:0.99990001 
1 1:0.00097700898 12:0.99990001 
1 6:0.99990001 
1 1:0.0039080359 44:0.99990001 
1 48:0.99990001 
1 1:0.00097700898 13:0.99990001 
1 1:0.00048850449 48:0.99990001 
